digraph Tree {
node [shape=box, style="filled, rounded", color="black", fontname="helvetica"] ;
edge [fontname="helvetica"] ;
0 [label="alive <= 0.5\nentropy = 0.961\nsamples = 712\nvalue = [438, 274]", fillcolor="#f5d0b5"] ;
1 [label="entropy = 0.0\nsamples = 438\nvalue = [438, 0]", fillcolor="#e58139"] ;
0 -> 1 [labeldistance=2.5, labelangle=45, headlabel="True"] ;
2 [label="entropy = 0.0\nsamples = 274\nvalue = [0, 274]", fillcolor="#399de5"] ;
0 -> 2 [labeldistance=2.5, labelangle=-45, headlabel="False"] ;
}